{
  "sizes": [
    11,
    5,
    1
  ],
  "layers": [
    {
      "q": {},
      "w": {},
      "e": {},
      "r": {},
      "t": {},
      "y": {},
      "u": {},
      "i": {},
      "o": {},
      "p": {},
      "a": {}
    },
    {
      "0": {
        "bias": 0.1461811512708664,
        "weights": {
          "q": -0.11320476979017258,
          "w": -0.13469265401363373,
          "e": -0.16582052409648895,
          "r": -0.19385944306850433,
          "t": -0.10499643534421921,
          "y": 0.11433175206184387,
          "u": -0.02473623864352703,
          "i": 0.12698759138584137,
          "o": 0.009187092073261738,
          "p": 0.13797740638256073,
          "a": -0.06686606258153915
        }
      },
      "1": {
        "bias": 0.17097295820713043,
        "weights": {
          "q": -0.06418023258447647,
          "w": -0.025504376739263535,
          "e": -0.0469089038670063,
          "r": -0.1661950796842575,
          "t": 0.086229607462883,
          "y": 0.08053473383188248,
          "u": 0.19045139849185944,
          "i": -0.06437959522008896,
          "o": -0.19294355809688568,
          "p": 0.0626976266503334,
          "a": 0.09169784188270569
        }
      },
      "2": {
        "bias": 0.194980189204216,
        "weights": {
          "q": 0.1296512484550476,
          "w": -0.04408976063132286,
          "e": 0.20425966382026672,
          "r": -0.0113668916746974,
          "t": 0.1916111260652542,
          "y": 0.06363821029663086,
          "u": 0.1137455627322197,
          "i": 0.025474077090620995,
          "o": -0.031364813446998596,
          "p": -0.003138965694233775,
          "a": 0.03445825353264809
        }
      },
      "3": {
        "bias": 0.057814426720142365,
        "weights": {
          "q": -0.012281441129744053,
          "w": -0.1573966145515442,
          "e": 0.19665956497192383,
          "r": 0.11980463564395905,
          "t": 0.039833713322877884,
          "y": -0.13283197581768036,
          "u": -0.17975011467933655,
          "i": 0.010616491548717022,
          "o": -0.14959357678890228,
          "p": -0.112577885389328,
          "a": -0.06445053964853287
        }
      },
      "4": {
        "bias": 0.1365293711423874,
        "weights": {
          "q": -0.024857064709067345,
          "w": -0.18856246769428253,
          "e": 0.15563374757766724,
          "r": -0.056307353079319,
          "t": 0.10503789037466049,
          "y": 0.01781962811946869,
          "u": -0.14395089447498322,
          "i": 0.0169183611869812,
          "o": -0.14205345511436462,
          "p": -0.04069099202752113,
          "a": 0.008092282339930534
        }
      }
    },
    {
      "out": {
        "bias": 0.21646438539028168,
        "weights": {
          "0": -0.0765664279460907,
          "1": -0.01717188023030758,
          "2": 0.24548815190792084,
          "3": 0.10796984285116196,
          "4": -0.04661305621266365
        }
      }
    }
  ],
  "outputLookup": true,
  "inputLookup": true,
  "activation": "sigmoid"
}