{
  "sizes": [
    11,
    5,
    1
  ],
  "layers": [
    {
      "q": {},
      "w": {},
      "e": {},
      "r": {},
      "t": {},
      "y": {},
      "u": {},
      "i": {},
      "o": {},
      "p": {},
      "a": {}
    },
    {
      "0": {
        "bias": -0.1828661561012268,
        "weights": {
          "q": -0.025426793843507767,
          "w": 0.033325549215078354,
          "e": 0.1763520985841751,
          "r": -0.12777584791183472,
          "t": 0.04258439689874649,
          "y": 0.0863889679312706,
          "u": 0.06966618448495865,
          "i": 0.0796256959438324,
          "o": -0.10503026843070984,
          "p": -0.16678071022033691,
          "a": 0.18851684033870697
        }
      },
      "1": {
        "bias": 0.1575639843940735,
        "weights": {
          "q": 0.16758853197097778,
          "w": 0.11856556683778763,
          "e": -0.11373823881149292,
          "r": 0.19573716819286346,
          "t": 0.1902603954076767,
          "y": -0.010191434994339943,
          "u": -0.12775035202503204,
          "i": 0.030651133507490158,
          "o": -0.11915194988250732,
          "p": 0.16138188540935516,
          "a": 0.011098808608949184
        }
      },
      "2": {
        "bias": 0.0017677518771961331,
        "weights": {
          "q": -0.16112057864665985,
          "w": 0.02025800198316574,
          "e": 0.051779311150312424,
          "r": -0.032518088817596436,
          "t": 0.11064082384109497,
          "y": -0.13197267055511475,
          "u": -0.1877773404121399,
          "i": 0.012808941304683685,
          "o": -0.0091781010851264,
          "p": 0.02004827931523323,
          "a": 0.11011993885040283
        }
      },
      "3": {
        "bias": -0.12101760506629944,
        "weights": {
          "q": 0.14552061259746552,
          "w": 0.10516812652349472,
          "e": -0.185516357421875,
          "r": 0.13595055043697357,
          "t": -0.03927747160196304,
          "y": -0.10325635224580765,
          "u": 0.04284089058637619,
          "i": 0.14742687344551086,
          "o": -0.18529349565505981,
          "p": -0.18545761704444885,
          "a": -0.12609656155109406
        }
      },
      "4": {
        "bias": 0.06178273260593414,
        "weights": {
          "q": 0.14744353294372559,
          "w": 0.11877524852752686,
          "e": -0.17707769572734833,
          "r": -0.14575126767158508,
          "t": 0.145321786403656,
          "y": -0.012996827252209187,
          "u": -0.19940251111984253,
          "i": 0.039348553866147995,
          "o": -0.171345517039299,
          "p": -0.06673908233642578,
          "a": -0.07373522967100143
        }
      }
    },
    {
      "out": {
        "bias": 0.15007703006267548,
        "weights": {
          "0": 0.17799144983291626,
          "1": 0.02309161238372326,
          "2": 0.19083142280578613,
          "3": 0.07528522610664368,
          "4": 0.014673249796032906
        }
      }
    }
  ],
  "outputLookup": true,
  "inputLookup": true,
  "activation": "sigmoid"
}